<?xml version="1.0"?>
<opencv_storage>
<stage6>
  <maxWeakCount>10</maxWeakCount>
  <stageThreshold>-1.3971354961395264e+00</stageThreshold>
  <weakClassifiers>
    <_>
      <internalNodes>
        0 -1 69635 1.9714310765266418e-02</internalNodes>
      <leafValues>
        -7.7304965257644653e-01 1.</leafValues></_>
    <_>
      <internalNodes>
        0 -1 79329 8.4680598229169846e-04</internalNodes>
      <leafValues>
        -3.7247142195701599e-01 2.8528070449829102e-01</leafValues></_>
    <_>
      <internalNodes>
        0 -1 13490 1.3601249083876610e-03</internalNodes>
      <leafValues>
        1.8326126039028168e-01 -3.8581562042236328e-01</leafValues></_>
    <_>
      <internalNodes>
        0 -1 57670 -5.1662593614310026e-04</internalNodes>
      <leafValues>
        3.7184193730354309e-01 -1.9847613573074341e-01</leafValues></_>
    <_>
      <internalNodes>
        0 -1 13330 -1.1183897033333778e-02</internalNodes>
      <leafValues>
        -7.2393327951431274e-01 1.0777194052934647e-01</leafValues></_>
    <_>
      <internalNodes>
        0 -1 25751 1.2727868743240833e-02</internalNodes>
      <leafValues>
        1.6750706732273102e-01 -5.5489313602447510e-01</leafValues></_>
    <_>
      <internalNodes>
        0 -1 121050 -5.2187032997608185e-04</internalNodes>
      <leafValues>
        3.5643559694290161e-01 -2.1936219930648804e-01</leafValues></_>
    <_>
      <internalNodes>
        0 -1 154955 -5.4830321460030973e-05</internalNodes>
      <leafValues>
        -4.1103366017341614e-01 1.8159596621990204e-01</leafValues></_>
    <_>
      <internalNodes>
        0 -1 11547 1.6826600767672062e-03</internalNodes>
      <leafValues>
        -2.2572608292102814e-01 3.1727418303489685e-01</leafValues></_>
    <_>
      <internalNodes>
        0 -1 5344 -6.9979019463062286e-02</internalNodes>
      <leafValues>
        5.2123296260833740e-01 -1.5746158361434937e-01</leafValues></_></weakClassifiers></stage6>
</opencv_storage>
